%YAML:1.0
opencv_ml_svm:
   format: 3
   svmType: C_SVC
   kernel:
      type: LINEAR
   C: 1.
   term_criteria: { iterations:100 }
   var_count: 7
   class_count: 2
   class_labels: !!opencv-matrix
      rows: 2
      cols: 1
      dt: i
      data: [ 0, 1 ]
   sv_total: 1
   support_vectors:
      - [ 1.94000639e-03, 3.01098521e-06, -1.27706581e-10,
          -6.80618192e-12, 2.63210935e-23, 1.09186009e-15,
          -4.27853848e-25 ]
   uncompressed_sv_total: 16
   uncompressed_support_vectors:
      - [ 9.80325742e-04, 5.19303228e-07, 5.36277404e-18, 1.43891998e-15,
          -1.26400778e-31, 1.03692456e-18, -5.56876010e-42 ]
      - [ 9.76687297e-04, 5.11326107e-07, 2.45292188e-17, 2.52344011e-15,
          6.27814512e-31, 1.80443805e-18, 0. ]
      - [ 8.89924238e-04, 3.52856063e-07, 1.89269872e-15, 3.42416669e-15,
          8.71712079e-30, 2.03401272e-18, 3.06940416e-41 ]
      - [ 8.55293998e-04, 3.03332797e-07, 5.03425308e-15, 2.96053960e-15,
          1.14294109e-29, 1.63053667e-18, 3.79303468e-41 ]
      - [ 8.89924238e-04, 3.52856063e-07, 1.89269872e-15, 3.42416669e-15,
          8.71712079e-30, 2.03401272e-18, 3.06940416e-41 ]
      - [ 9.24388762e-04, 4.10890777e-07, 8.68730424e-17, 8.92306964e-16,
          2.48435653e-31, 5.71975541e-19, 7.20267411e-43 ]
      - [ 9.24388762e-04, 4.10890777e-07, 8.68730424e-17, 8.92306964e-16,
          2.48435653e-31, 5.71975541e-19, 7.20267411e-43 ]
      - [ 8.89924238e-04, 3.52856063e-07, 1.89269872e-15, 3.42416669e-15,
          8.71712079e-30, 2.03401272e-18, 3.06940416e-41 ]
      - [ 6.66910259e-04, 2.30237127e-08, 1.13911554e-11, 5.14989418e-13,
          -1.20806997e-24, -7.71402236e-17, -3.10481995e-25 ]
      - [ 6.69150322e-04, 2.25163177e-08, 1.70943242e-11, 7.94042132e-13,
          -2.88636455e-24, -1.17685381e-16, -4.76554028e-25 ]
      - [ 6.78967044e-04, 2.69334670e-08, 1.89456419e-11, 1.04481072e-12,
          -4.64622192e-24, -1.70642384e-16, 1.44916522e-25 ]
      - [ 6.80122117e-04, 2.63480047e-08, 1.94118315e-11, 1.15855697e-12,
          -5.40475230e-24, -1.87071925e-16, 9.87708581e-25 ]
      - [ 6.73598377e-04, 2.19607585e-08, 1.64064960e-11, 9.11004128e-13,
          -3.50637707e-24, -1.33788563e-16, 3.31285638e-25 ]
      - [ 6.74523239e-04, 3.25903180e-08, 1.23300441e-11, 6.80264439e-13,
          -1.96950485e-24, -1.22785221e-16, 5.03553551e-26 ]
      - [ 6.68800320e-04, 2.42747848e-08, 1.26816127e-11, 6.53151578e-13,
          -1.83067183e-24, -1.01614308e-16, -4.26887494e-25 ]
      - [ 6.78779208e-04, 2.56793324e-08, 1.94563862e-11, 1.06834268e-12,
          -4.86909287e-24, -1.69414160e-16, 1.27511280e-25 ]
   decision_functions:
      -
         sv_count: 1
         rho: 1.5978249052750471e-06
         alpha: [ 1. ]
